digraph Tree {
0 [label="BPG <= 1.5833\ngini = 0.0680968858131\nsamples = 595", shape="box"] ;
1 [label="APG <= 1.5278\ngini = 0.0620277606363\nsamples = 593", shape="box"] ;
0 -> 1 ;
2 [label="gini = 0.0416\nsamples = 564\nvalue = [ 552.   12.]", shape="box"] ;
1 -> 2 ;
3 [label="gini = 0.3662\nsamples = 29\nvalue = [ 22.   7.]", shape="box"] ;
1 -> 3 ;
4 [label="gini = 0.0000\nsamples = 2\nvalue = [ 0.  2.]", shape="box"] ;
0 -> 4 ;
}